digraph Tree {
node [shape=box, style="filled", color="black"] ;
0 [label="odor_n <= 0.5\ngini = 0.5\nsamples = 812\nvalue = [411, 401]\nclass = p", fillcolor="#e5813906"] ;
1 [label="stalk-root_c <= 0.5\ngini = 0.283\nsamples = 469\nvalue = [80, 389]\nclass = e", fillcolor="#399de5cb"] ;
0 -> 1 [labeldistance=2.5, labelangle=45, headlabel="True"] ;
2 [label="stalk-surface-below-ring_y <= 0.5\ngini = 0.122\nsamples = 415\nvalue = [27, 388]\nclass = e", fillcolor="#399de5ed"] ;
1 -> 2 ;
3 [label="odor_l <= 0.5\ngini = 0.054\nsamples = 399\nvalue = [11, 388]\nclass = e", fillcolor="#399de5f8"] ;
2 -> 3 ;
4 [label="odor_a <= 0.5\ngini = 0.025\nsamples = 393\nvalue = [5, 388]\nclass = e", fillcolor="#399de5fc"] ;
3 -> 4 ;
5 [label="gini = 0.0\nsamples = 388\nvalue = [0, 388]\nclass = e", fillcolor="#399de5ff"] ;
4 -> 5 ;
6 [label="gini = 0.0\nsamples = 5\nvalue = [5, 0]\nclass = p", fillcolor="#e58139ff"] ;
4 -> 6 ;
7 [label="gini = 0.0\nsamples = 6\nvalue = [6, 0]\nclass = p", fillcolor="#e58139ff"] ;
3 -> 7 ;
8 [label="gini = 0.0\nsamples = 16\nvalue = [16, 0]\nclass = p", fillcolor="#e58139ff"] ;
2 -> 8 ;
9 [label="odor_l <= 0.5\ngini = 0.036\nsamples = 54\nvalue = [53, 1]\nclass = p", fillcolor="#e58139fa"] ;
1 -> 9 ;
10 [label="cap-color_w <= 0.5\ngini = 0.091\nsamples = 21\nvalue = [20, 1]\nclass = p", fillcolor="#e58139f2"] ;
9 -> 10 ;
11 [label="gini = 0.278\nsamples = 6\nvalue = [5, 1]\nclass = p", fillcolor="#e58139cc"] ;
10 -> 11 ;
12 [label="gini = 0.0\nsamples = 15\nvalue = [15, 0]\nclass = p", fillcolor="#e58139ff"] ;
10 -> 12 ;
13 [label="gini = 0.0\nsamples = 33\nvalue = [33, 0]\nclass = p", fillcolor="#e58139ff"] ;
9 -> 13 ;
14 [label="spore-print-color_r <= 0.5\ngini = 0.068\nsamples = 343\nvalue = [331, 12]\nclass = p", fillcolor="#e58139f6"] ;
0 -> 14 [labeldistance=2.5, labelangle=-45, headlabel="False"] ;
15 [label="stalk-surface-below-ring_y <= 0.5\ngini = 0.029\nsamples = 336\nvalue = [331, 5]\nclass = p", fillcolor="#e58139fb"] ;
14 -> 15 ;
16 [label="gill-size_n <= 0.5\ngini = 0.012\nsamples = 331\nvalue = [329, 2]\nclass = p", fillcolor="#e58139fd"] ;
15 -> 16 ;
17 [label="gini = 0.0\nsamples = 313\nvalue = [313, 0]\nclass = p", fillcolor="#e58139ff"] ;
16 -> 17 ;
18 [label="gill-color_w <= 0.5\ngini = 0.198\nsamples = 18\nvalue = [16, 2]\nclass = p", fillcolor="#e58139df"] ;
16 -> 18 ;
19 [label="gini = 0.0\nsamples = 12\nvalue = [12, 0]\nclass = p", fillcolor="#e58139ff"] ;
18 -> 19 ;
20 [label="gini = 0.444\nsamples = 6\nvalue = [4, 2]\nclass = p", fillcolor="#e581397f"] ;
18 -> 20 ;
21 [label="gini = 0.48\nsamples = 5\nvalue = [2, 3]\nclass = e", fillcolor="#399de555"] ;
15 -> 21 ;
22 [label="gini = 0.0\nsamples = 7\nvalue = [0, 7]\nclass = e", fillcolor="#399de5ff"] ;
14 -> 22 ;
}